57 100
')', 0.10942199 -0.016492367 -0.016109517 -0.052181058 -0.10448725 0.011985377 0.099426225 -0.17536962 0.1513017 -0.11625782 0.04278801 0.07962362 0.04665101 -0.09733959 -0.121821225 0.029519984 0.0094145695 0.09545108 0.32539746 -0.04368708 -0.06390707 -0.043653358 0.21025391 0.036465764 -0.13428701 0.031863138 0.027242506 -0.0053357333 -0.15044987 -0.1636941 -0.121510416 0.09256919 -0.3169264 0.068597786 -0.23193622 -0.07951233 -0.21801835 -0.11284065 0.07575177 0.042157568 -0.17181717 -0.06938731 -0.0028967592 0.11648571 -0.0253735 0.123571485 0.06330005 -0.08058566 0.040334385 0.21341664 -0.20638457 -0.15155156 0.20568426 0.0060697286 -0.049619727 -0.18997076 -0.013779866 0.058255874 -0.03740925 -0.12011276 -0.04799556 -0.14210944 0.0851963 -0.039672647 0.104352124 -0.07716685 0.23858464 -0.0049059987 0.03890615 -0.10017753 -0.045261733 -0.12823275 0.09314258 0.13504311 0.03723537 0.04134549 0.06168735 0.04806422 -0.023754768 -0.112129174 -0.19513685 -0.07410944 -0.029322885 0.042316448 0.13799287 0.007928895 0.1356304 -0.17987685 -0.20407297 -0.008384358 0.10184879 -0.09449788 0.03252139 0.07464801 0.0004615094 -0.15143181 -0.10185218 0.0034884734 0.0038250228 0.07286513
'(', 0.103994235 -0.005532036 -0.022810224 -0.046984334 -0.11033267 0.02637584 0.07450724 -0.17963843 0.16300236 -0.11329098 0.052913137 0.08698979 0.061648156 -0.11996059 -0.10394725 0.037665162 0.0030813266 0.11679397 0.33287662 -0.0377096 -0.07984136 -0.04820281 0.22717561 0.034131464 -0.16164912 0.049803577 0.01877895 0.01499169 -0.16880484 -0.18370229 -0.1382624 0.09203207 -0.32695347 0.079067715 -0.2351417 -0.0893646 -0.23526213 -0.11956517 0.072399616 0.05546401 -0.18808244 -0.06971677 -0.009837265 0.12649661 -0.025373718 0.13338244 0.051959153 -0.07789689 0.060997758 0.23079914 -0.21795285 -0.16531508 0.21726847 0.0076111467 -0.041062627 -0.19203034 -0.04008215 0.04580611 -0.049352136 -0.12023815 -0.06618232 -0.1269041 0.07014816 -0.03717676 0.1279995 -0.069964506 0.23566589 0.014974374 0.025611999 -0.12027596 -0.06824346 -0.13447827 0.11111637 0.13188787 0.034962308 0.04649014 0.066777244 0.030084938 -0.013566571 -0.12723498 -0.22050686 -0.07052905 -0.02660866 0.046199426 0.15446779 0.003862254 0.1286784 -0.18088892 -0.21973728 -0.01899573 0.10025108 -0.11178126 0.042353 0.06753865 -0.00093893195 -0.17864467 -0.10794687 0.017471125 0.020938126 0.06068296
';', 0.12522313 -0.011814725 -0.0038968313 -0.061867744 -0.11127988 -0.005453314 0.12866765 -0.17600594 0.13961303 -0.12280562 0.048550434 0.083043315 0.03464327 -0.08144473 -0.1576499 0.00884244 0.023943285 0.08830396 0.3395721 -0.05468001 -0.04690773 -0.032104906 0.18986236 0.047238164 -0.115289375 0.019467896 0.035587776 -0.024970006 -0.1469765 -0.14120251 -0.10321263 0.09576875 -0.34580234 0.06989222 -0.24179968 -0.073681794 -0.21748915 -0.12623668 0.09229135 0.033123277 -0.16935614 -0.07999206 -0.0019797245 0.09991219 -0.037820857 0.10340755 0.06751996 -0.086268455 0.04519469 0.20285335 -0.19758716 -0.1656871 0.19913898 -0.0053394544 -0.050351255 -0.19982006 0.0032207672 0.086484775 -0.025675822 -0.1393019 -0.03598435 -0.14309663 0.08946913 -0.04985811 0.08489615 -0.08667667 0.26194927 -0.01783145 0.07350188 -0.08040649 -0.014882997 -0.14155613 0.09021075 0.15839544 0.04121379 0.043536965 0.057083443 0.06861185 -0.0377118 -0.09559409 -0.17801917 -0.08905931 -0.025676755 0.038346637 0.12720643 0.028684326 0.15977705 -0.17758991 -0.2107557 -0.017513862 0.09601269 -0.06627511 0.008693899 0.07847337 -0.0035160787 -0.15155661 -0.107318915 -0.029413553 -0.010319155 0.08686754
',', 0.11617703 -0.033771686 -0.015472192 -0.027089057 -0.12277483 0.025714776 0.07313723 -0.17756532 0.15342604 -0.11244882 0.04878344 0.08563445 0.052525744 -0.13921238 -0.09478845 0.025313701 -0.009880077 0.11140227 0.32180142 -0.052697506 -0.08718269 -0.062445655 0.22739998 0.015198917 -0.16650613 0.057256803 -0.00073768373 0.00540905 -0.18910123 -0.18759122 -0.1402779 0.09044162 -0.31555107 0.08471321 -0.20700914 -0.07682932 -0.21382777 -0.12239559 0.078726865 0.040363647 -0.1918583 -0.070821896 -0.005396199 0.14437817 -0.008467952 0.12987325 0.06511754 -0.06878637 0.060689233 0.2488419 -0.2213019 -0.15444688 0.21339898 0.022359012 -0.043192945 -0.19490603 -0.027080439 0.058926962 -0.052024547 -0.09351628 -0.060507063 -0.15605772 0.09359258 -0.036738273 0.10318109 -0.06440079 0.21853764 0.017292485 0.011319925 -0.114255056 -0.06809916 -0.13581252 0.11184408 0.1379386 0.018843427 0.053528562 0.05740869 0.025591638 -0.029027542 -0.1382336 -0.20481578 -0.06307269 -0.040838234 0.048775185 0.16450283 0.010950465 0.12218501 -0.18191689 -0.22399977 0.0019497571 0.09888812 -0.097935274 0.05370836 0.0628248 0.0036860441 -0.16855529 -0.088035524 0.028855724 0.027856855 0.0677645
'*', 0.23439874 -0.037075058 0.010397941 -0.09414365 -0.12248017 0.051844977 0.15496309 -0.20573147 0.11561491 -0.08372149 -0.018148057 0.07426918 0.04439615 -0.07013434 -0.17420125 0.0346656 0.021084715 0.103938095 0.3134299 -0.066720724 -0.07482027 0.0024733609 0.23141763 0.057534646 -0.09967171 0.0027374192 0.015527627 -0.0884551 -0.14347629 -0.18454629 -0.114773594 0.055020146 -0.3083918 0.09070339 -0.22589453 -0.028060881 -0.18762411 -0.09069379 0.13498019 -0.03446604 -0.20505027 -0.03836423 0.015983865 0.12679222 -0.023259668 0.08434131 0.10703454 -0.08351353 -0.01651071 0.20251659 -0.15246049 -0.1271704 0.11116989 0.033557467 -0.03023228 -0.18607585 0.048282035 0.11609576 -0.04542426 -0.12086846 0.03024193 -0.1765212 0.10849536 0.0039344053 0.03884001 -0.07414975 0.25368726 -0.022350283 0.018849492 -0.09491793 -0.029583313 -0.12333239 -0.012965843 0.11566673 0.021466846 0.04719171 0.015539915 0.045779444 -0.0140449535 -0.14161378 -0.17786038 -0.08483118 -0.07185366 0.11094108 0.14743198 0.07530983 0.17251974 -0.16328321 -0.24947643 0.054721653 0.121127956 -0.047090463 0.005461136 0.14089729 0.03549119 -0.14247513 -0.12548572 -0.06289413 0.049867064 0.0993198
'=', 0.12464087 -0.013225648 -0.003392039 -0.053862803 -0.10580806 0.0062857787 0.11492668 -0.16489094 0.1275309 -0.11536171 0.041887645 0.07718494 0.03928816 -0.077378675 -0.14569993 0.01351837 0.015607867 0.09209715 0.32285985 -0.044240564 -0.04658972 -0.039892543 0.18077499 0.047013633 -0.109701775 0.021008654 0.032417275 -0.025555298 -0.13955255 -0.13832195 -0.10083547 0.09013754 -0.32194212 0.075621456 -0.2236828 -0.07304216 -0.20929354 -0.1148606 0.08561501 0.034547243 -0.17098162 -0.072570145 -0.0027045514 0.1042566 -0.030016873 0.10778363 0.061014928 -0.08372726 0.036841393 0.18900596 -0.19398302 -0.1484051 0.1924551 -0.005555206 -0.048443798 -0.18958688 0.0038839092 0.07317437 -0.030507855 -0.136075 -0.03744038 -0.12890473 0.07682814 -0.044765245 0.088911526 -0.0795813 0.2427954 -0.01372773 0.06211281 -0.07577981 -0.025255172 -0.12808245 0.08283612 0.14457695 0.03540192 0.039342433 0.059431028 0.053227175 -0.033668105 -0.099151686 -0.17663756 -0.08245642 -0.02957221 0.038919523 0.12339343 0.019593023 0.14802113 -0.16967747 -0.19234262 -0.010010014 0.08598445 -0.07044504 0.008544908 0.070059545 -0.006495817 -0.14771958 -0.10653757 -0.014711619 0.00058764813 0.07479674
'->', 0.10399944 0.007956553 -0.019066665 -0.06223134 -0.11124107 -0.0077962796 0.118807025 -0.1798684 0.16808854 -0.1333993 0.0550936 0.0892327 0.05462829 -0.08532498 -0.15425582 0.026900703 0.01887885 0.10578783 0.34238648 -0.041079134 -0.042976137 -0.03039241 0.2023318 0.048260383 -0.11397662 0.012030397 0.03763663 -0.0043679415 -0.13561898 -0.1427965 -0.102907166 0.10368053 -0.3565758 0.07653994 -0.26282123 -0.08836249 -0.2366958 -0.1360235 0.100300424 0.044468388 -0.18996385 -0.084582925 -0.017505253 0.10244328 -0.045361347 0.13723774 0.061256215 -0.085610315 0.053627703 0.19748963 -0.21883659 -0.16610575 0.22246593 -0.009597393 -0.04895974 -0.20391485 -0.015503003 0.0649927 -0.035398796 -0.16724333 -0.052536715 -0.14007854 0.071467966 -0.046524353 0.11743592 -0.090435654 0.25642025 -0.011758989 0.07194156 -0.090808496 -0.03363941 -0.13716422 0.09345544 0.16656828 0.046958577 0.035212696 0.055389665 0.06895871 -0.034212314 -0.094684355 -0.19583124 -0.08505937 -0.01920016 0.0328303 0.12905297 0.015493189 0.15568729 -0.17886186 -0.19251166 -0.029974619 0.10914719 -0.09241821 0.0042859255 0.0849717 -0.017387545 -0.16049708 -0.12940387 -0.01589599 -0.012745201 0.07740731
'{', 0.124967165 -0.006600626 -0.011071229 -0.05355616 -0.10151621 0.008209433 0.10540804 -0.16381948 0.13314134 -0.11602908 0.039057795 0.08726615 0.041113377 -0.08764082 -0.13963228 0.012720155 0.019720884 0.097341865 0.31653836 -0.049629238 -0.05378323 -0.036035467 0.18729751 0.04863559 -0.11359908 0.015200438 0.02913367 -0.021737847 -0.1334105 -0.13809432 -0.11043645 0.086598784 -0.31600592 0.07155979 -0.22627726 -0.06743974 -0.20853834 -0.108645104 0.08687162 0.035201546 -0.1693186 -0.06535783 -0.0056229243 0.10211854 -0.035964392 0.10912646 0.06716984 -0.07719629 0.035509907 0.19333728 -0.19488114 -0.14332221 0.1943322 0.0016133676 -0.042040262 -0.19224167 -0.00022798205 0.06893221 -0.038859583 -0.13023491 -0.032686546 -0.13754015 0.083574295 -0.03878961 0.086134434 -0.07684976 0.24037391 -0.008143814 0.056346778 -0.083149195 -0.032173466 -0.12845254 0.07481898 0.14123248 0.03508241 0.039476525 0.045821816 0.052601267 -0.038754337 -0.09492872 -0.17180198 -0.081638604 -0.026924789 0.045757554 0.12019904 0.015582308 0.14777142 -0.16116302 -0.19490865 -0.008743832 0.0969926 -0.07925641 0.013234006 0.07428066 -0.0033390506 -0.14239635 -0.105144165 -0.019957885 -0.0032170797 0.07724792
'if', 0.12822776 -0.010070151 -0.008887681 -0.057941295 -0.10366912 0.0061330744 0.11726441 -0.1666295 0.14269549 -0.119276844 0.0389703 0.087185204 0.044559464 -0.08110999 -0.14823395 0.02208353 0.023230346 0.09043964 0.32476348 -0.04847683 -0.05051101 -0.036692064 0.19461958 0.048917368 -0.1160537 0.01673555 0.031901542 -0.018292982 -0.13897742 -0.14655142 -0.104018345 0.0933132 -0.3262012 0.071137436 -0.23848331 -0.07929809 -0.21280114 -0.110947914 0.090137675 0.036633253 -0.17581818 -0.07836391 -0.005835544 0.10134872 -0.034894206 0.11539636 0.06508403 -0.080890186 0.037546523 0.19330549 -0.1952907 -0.15781888 0.1942977 0.0022015425 -0.05173924 -0.19496387 0.0036303934 0.076522216 -0.028640235 -0.1411616 -0.036451846 -0.13752685 0.08579357 -0.039160874 0.086895846 -0.08246295 0.24577107 -0.014283941 0.051591456 -0.07886492 -0.028344037 -0.13716619 0.08617136 0.14990784 0.04140309 0.03959244 0.052539214 0.061833177 -0.03511385 -0.09950301 -0.18742348 -0.08072775 -0.027424306 0.049311664 0.12539716 0.017201835 0.15125878 -0.1720641 -0.20149317 -0.015019579 0.0948982 -0.0764107 0.0155781135 0.082058124 -0.003287438 -0.1465942 -0.11129847 -0.013529367 0.0014198705 0.08280817
'}', 0.13037618 -0.004972205 0.004668468 -0.08534594 -0.106209844 -0.018383084 0.1510967 -0.17396083 0.13221629 -0.12807016 0.047971323 0.08855208 0.0345148 -0.06222423 -0.17037737 0.008219315 0.030101003 0.08830099 0.35503215 -0.050146192 -0.033926208 -0.01950213 0.18441255 0.06073239 -0.09822938 -0.0010073602 0.047502693 -0.030872798 -0.123167284 -0.12986735 -0.08380552 0.0884727 -0.3602539 0.0600262 -0.26316077 -0.06206357 -0.22066683 -0.123324625 0.09506971 0.018466385 -0.16000096 -0.090926595 -0.008999176 0.083393544 -0.052007124 0.09125689 0.07023602 -0.095716394 0.029589355 0.16828261 -0.19523716 -0.15177606 0.19876707 -0.01695759 -0.0483762 -0.1990758 0.014080273 0.092828415 -0.030571094 -0.16959102 -0.032951083 -0.14682291 0.08348618 -0.059347413 0.08347546 -0.094306245 0.2797991 -0.025307605 0.08763676 -0.06899888 -0.007752342 -0.13336176 0.07665474 0.1573285 0.049867082 0.040748294 0.05130719 0.08611691 -0.034016818 -0.078874335 -0.16453366 -0.091831826 -0.02537384 0.037468933 0.1010656 0.03326301 0.17538092 -0.1726437 -0.19368826 -0.022029776 0.09741393 -0.06233079 -0.018467164 0.08740306 -0.01265224 -0.14633584 -0.12231584 -0.05124986 -0.024956563 0.08736903
'0', 0.14854985 -0.011809138 -0.0007049012 -0.06640519 -0.10331009 -0.008933598 0.14483416 -0.16671532 0.13524146 -0.12282229 0.038323876 0.09085538 0.040442187 -0.07305314 -0.1716076 -0.0017450891 0.024342207 0.089295425 0.3358995 -0.05170391 -0.033304732 -0.028800989 0.17329302 0.059271917 -0.10393753 0.005616761 0.0376626 -0.04213191 -0.12811196 -0.12242409 -0.09013351 0.09215821 -0.33560458 0.07428144 -0.24069452 -0.07620074 -0.20526728 -0.110292874 0.10155064 0.023431288 -0.17326571 -0.07510086 0.003677188 0.0994027 -0.04269307 0.103464775 0.068418 -0.09081196 0.024621893 0.18852708 -0.19772045 -0.1606685 0.18858431 -0.006852486 -0.056305733 -0.20285779 0.018845605 0.09478531 -0.022653079 -0.14675099 -0.024857668 -0.14389828 0.092363104 -0.05655228 0.07737027 -0.09265936 0.26289234 -0.02313424 0.08258387 -0.062077258 -0.00078431366 -0.13061593 0.07341898 0.16080642 0.041853566 0.032471135 0.05246433 0.075513594 -0.04487885 -0.08674006 -0.1638467 -0.08961483 -0.032880895 0.045123972 0.115440056 0.026141876 0.16937019 -0.16865289 -0.19483528 -0.010593966 0.08819216 -0.067021996 -0.008280639 0.08101149 -0.0040612877 -0.14460227 -0.108412445 -0.042971175 -0.012276147 0.08801171
'""""', 0.11161327 -0.015405143 -0.013809802 -0.05894301 -0.10445515 0.0066001914 0.09642728 -0.1767304 0.1486155 -0.11735286 0.050391383 0.089627706 0.045776606 -0.09668212 -0.12717281 0.025287218 0.0073101926 0.10299407 0.32994515 -0.044412985 -0.06439646 -0.04025999 0.21225028 0.039361816 -0.13883464 0.0381982 0.02493482 -0.0040249047 -0.1562949 -0.165565 -0.1229022 0.08798759 -0.33444062 0.06909495 -0.22671986 -0.06591571 -0.21544242 -0.12256313 0.08334124 0.043307193 -0.1676964 -0.07590049 -0.007175103 0.11525814 -0.032088723 0.10966303 0.06931341 -0.08139274 0.04807348 0.21384221 -0.20820828 -0.1616383 0.20319521 0.0072813295 -0.03955926 -0.18974704 -0.008269051 0.06624222 -0.044367816 -0.12581865 -0.04852858 -0.1375558 0.093300946 -0.048056137 0.10063174 -0.08141224 0.24313986 -0.00069639797 0.04653023 -0.09906638 -0.039331198 -0.13932364 0.1055045 0.1355495 0.03166044 0.051760737 0.054869357 0.049253136 -0.027861075 -0.1070161 -0.19260442 -0.07064682 -0.031436883 0.042000413 0.1342366 0.022081332 0.14859459 -0.17472172 -0.21327879 -0.014831247 0.094840504 -0.08872606 0.027048364 0.075865805 -0.0016539558 -0.15432262 -0.099448524 -0.009027063 -0.0018188203 0.07358895
'return', 0.12527356 -0.005095618 0.0055946643 -0.060125217 -0.09747851 -0.006609578 0.12697166 -0.16070166 0.12893395 -0.1186103 0.049232136 0.07532026 0.029572336 -0.07027852 -0.14854561 0.0035891228 0.025413103 0.088456355 0.32775554 -0.053508222 -0.044497702 -0.026802698 0.17894316 0.04151389 -0.10201125 0.019294385 0.040716406 -0.022564696 -0.13952628 -0.13792779 -0.09335124 0.09078734 -0.32820532 0.069305144 -0.23575053 -0.069106214 -0.20723073 -0.11664612 0.08397602 0.03033387 -0.15727022 -0.075249545 -0.010408537 0.10309345 -0.04140462 0.09987813 0.07263777 -0.081783086 0.03475475 0.18414544 -0.18737984 -0.15283467 0.19050902 -0.0077040032 -0.041198764 -0.19102037 0.011126752 0.09081557 -0.022324303 -0.13747555 -0.026382418 -0.13664635 0.084262334 -0.046655703 0.07462235 -0.07870905 0.24584033 -0.02563452 0.06940594 -0.07206788 -0.007606563 -0.13031262 0.08178506 0.14816377 0.05169634 0.040969696 0.05862464 0.056794513 -0.04172575 -0.09067195 -0.16795132 -0.0817326 -0.030613948 0.042061448 0.122128315 0.031918697 0.15852724 -0.16206852 -0.19132213 -0.010558129 0.09275065 -0.058651805 0.0014645791 0.07408477 -0.009215096 -0.14440407 -0.10558655 -0.029072633 -0.01017738 0.08140695
':', 0.28731433 0.013002662 0.0953576 -0.23215094 -0.05764065 -0.104883224 0.3599688 -0.1742219 0.02283854 -0.19347863 0.031253047 0.10871394 -0.03576113 0.12631382 -0.36696255 -0.10272768 0.13598922 0.0036952214 0.39969006 -0.12024163 0.09035619 0.0825498 0.06422957 0.17650633 0.08512623 -0.124293774 0.15633184 -0.1786227 0.022395996 0.020444302 0.040444385 0.07681406 -0.45228076 0.015838075 -0.32679668 0.06127309 -0.18218347 -0.15189615 0.1625814 -0.06569181 -0.07006489 -0.13730465 -0.008344401 -0.035625823 -0.13437913 -0.050121702 0.13589545 -0.13777635 -0.08299578 -0.012052762 -0.113515794 -0.15605038 0.094542004 -0.0939792 -0.052142456 -0.18000403 0.20739026 0.2592734 0.013780351 -0.29411957 0.08010412 -0.14975505 0.13292716 -0.13433792 -0.059686292 -0.15119423 0.42590144 -0.1349664 0.24351583 0.0712496 0.1517359 -0.1368348 -0.017349752 0.19747253 0.11685413 0.068008326 0.036717474 0.23563972 -0.097764954 0.092481434 -0.04789053 -0.15147807 -0.011303069 0.061689377 -0.07012462 0.1641245 0.34635144 -0.15106484 -0.18885522 -0.019686533 0.049866777 0.06866215 -0.2012935 0.15148452 -0.027101655 -0.061296634 -0.21022113 -0.29487064 -0.14247732 0.1579568
']', 0.13001308 -0.01827628 -0.008151731 -0.037031893 -0.1097648 0.009970425 0.11683435 -0.1600231 0.1290093 -0.119039 0.050780587 0.09330111 0.039230052 -0.10097788 -0.14110056 0.008178346 0.016774893 0.08505499 0.3181194 -0.042853676 -0.04523413 -0.054644637 0.16348815 0.02914771 -0.115738675 0.041638047 0.030304367 -0.025901284 -0.149324 -0.116454005 -0.10499799 0.08273613 -0.29585686 0.07671347 -0.19707176 -0.08334906 -0.19208044 -0.107732736 0.09327508 0.028749377 -0.17628913 -0.07899271 -0.0006924969 0.1163513 -0.02941066 0.10318381 0.055403035 -0.06831308 0.04635932 0.21778786 -0.20493141 -0.16803043 0.19285199 0.0075764777 -0.05189001 -0.19270006 0.018470611 0.08939543 -0.015843589 -0.11404174 -0.04075087 -0.15281062 0.099262476 -0.047881052 0.058643013 -0.0824177 0.21237427 -0.02415995 0.06896804 -0.07046072 0.00084423966 -0.13752414 0.08594295 0.15756159 0.039169934 0.038011767 0.05431877 0.06312484 -0.05442796 -0.10163178 -0.16985387 -0.07795811 -0.037392978 0.055367004 0.12416312 0.01624432 0.12594792 -0.1568941 -0.1985784 -0.00802563 0.08943104 -0.049751848 0.036642194 0.08248931 0.013581085 -0.15595789 -0.08123686 -0.01805648 0.0028847696 0.08790551
'[', 0.13468562 -0.027093712 -0.0034823588 -0.03836564 -0.11760514 0.011381461 0.12749606 -0.16945395 0.12500086 -0.120412014 0.05018733 0.09381379 0.03894222 -0.10173111 -0.1545608 0.0063722567 0.02467272 0.076439254 0.32457274 -0.042260684 -0.045729097 -0.048418153 0.16125078 0.02696145 -0.10807782 0.041023195 0.03092455 -0.035478014 -0.14078486 -0.117025934 -0.11062557 0.081443556 -0.30206785 0.075925544 -0.1945025 -0.08585472 -0.1960334 -0.10494571 0.09279114 0.02797266 -0.17027335 -0.079856455 0.006672102 0.11204826 -0.022588804 0.09567976 0.058496155 -0.07194807 0.03882918 0.22040309 -0.19504428 -0.16463432 0.19212441 0.002607835 -0.055953838 -0.20188086 0.02363446 0.08747627 -0.009805367 -0.11009534 -0.039327495 -0.15561035 0.10636278 -0.05234305 0.05768118 -0.07975794 0.21305448 -0.01996185 0.066953585 -0.06335548 0.0028580183 -0.13277076 0.085769355 0.16637927 0.04371091 0.032456774 0.056218628 0.07175608 -0.0536764 -0.09822347 -0.1586649 -0.08706824 -0.044914547 0.059116114 0.10998029 0.013758287 0.13233216 -0.1699842 -0.19586603 -0.009829709 0.09280717 -0.0554192 0.02975222 0.080679916 0.004754615 -0.15019906 -0.08507695 -0.015309959 0.004216273 0.0884796
""''"", 0.30195707 0.012477524 0.10012154 -0.24411911 -0.054341488 -0.10281473 0.3602199 -0.183519 0.01744381 -0.19806363 0.018486721 0.11387701 -0.045542393 0.1334469 -0.36644378 -0.092363775 0.13617511 0.008661104 0.4136178 -0.118451126 0.0861481 0.08216542 0.07435904 0.18346691 0.08396681 -0.12176505 0.15670532 -0.18181431 0.017697044 0.015811913 0.032486316 0.077340595 -0.45661455 0.020091947 -0.34334245 0.050543383 -0.17997319 -0.15300491 0.15903603 -0.071819454 -0.081013694 -0.14420912 -0.0058882777 -0.030394431 -0.14204387 -0.05293022 0.14361273 -0.14170635 -0.08770888 -0.008196851 -0.10669303 -0.16857696 0.08352383 -0.09875897 -0.041002307 -0.18198417 0.21722995 0.2640744 0.019979777 -0.2889652 0.09151901 -0.14815779 0.13257046 -0.13036837 -0.06339985 -0.15292917 0.4307582 -0.13544975 0.2500127 0.06619523 0.16204457 -0.14205883 -0.021147475 0.19448224 0.12532744 0.07315276 0.037654698 0.24509598 -0.09540152 0.0837065 -0.05952826 -0.15505527 -0.022571577 0.069947906 -0.059739348 0.17150661 0.3559319 -0.15613447 -0.1990045 -0.008092462 0.0574606 0.08173006 -0.20001426 0.16937241 -0.019202443 -0.06524689 -0.22563398 -0.29922223 -0.1376947 0.15977977
'1', 0.13895877 -0.012108993 -0.009053593 -0.052980956 -0.11195842 0.015251588 0.11329977 -0.17560779 0.13833942 -0.1191323 0.04371948 0.08418205 0.041408334 -0.10244206 -0.14265236 0.02292524 0.017829362 0.09867132 0.33666185 -0.04537843 -0.062486876 -0.04254392 0.2020018 0.03746777 -0.12912332 0.03327356 0.027329579 -0.02547431 -0.15981042 -0.1489007 -0.11802988 0.093543604 -0.3247277 0.07636815 -0.22865912 -0.07348813 -0.21759719 -0.111100525 0.09280147 0.03144574 -0.17803499 -0.07403279 0.00041243256 0.11990336 -0.024850195 0.113487884 0.06310164 -0.0809348 0.036040593 0.22004187 -0.20013848 -0.1631909 0.19583523 0.0095144 -0.053838592 -0.19937553 -0.0018322119 0.08659246 -0.024204068 -0.1245801 -0.037285835 -0.15211338 0.09713364 -0.038327623 0.078236036 -0.081788376 0.24346434 -0.017310793 0.054214016 -0.08224484 -0.023124913 -0.14394121 0.09117075 0.15414822 0.04332853 0.03881497 0.061309848 0.053628746 -0.034420323 -0.11347403 -0.1911587 -0.07787933 -0.04535128 0.052280527 0.13824151 0.021017255 0.14909908 -0.1771507 -0.2164072 -0.004564428 0.099763006 -0.07101896 0.02352353 0.08509259 0.007072997 -0.16040479 -0.09715341 -0.012572982 0.00845452 0.088742584
'case', 0.29432565 0.010001512 0.10491445 -0.25647083 -0.048666935 -0.12253572 0.37954757 -0.18056588 0.011841809 -0.19995901 0.028975593 0.11500561 -0.048513133 0.1499762 -0.38232937 -0.109458365 0.14908488 -0.004765918 0.40850186 -0.1245027 0.11195252 0.0963694 0.04910064 0.18635155 0.10636726 -0.13015908 0.17279871 -0.18603314 0.03705575 0.042795803 0.06029287 0.0858231 -0.45566815 0.0041445373 -0.34038624 0.073040746 -0.16876628 -0.1608649 0.16724657 -0.07726411 -0.053446874 -0.15469597 -0.004195549 -0.047830164 -0.14863993 -0.068545505 0.14218685 -0.14655349 -0.098462194 -0.034494676 -0.09895995 -0.16255538 0.07709773 -0.112403125 -0.048979666 -0.18637314 0.22861615 0.28058305 0.015711626 -0.30536342 0.08686997 -0.15205944 0.1423654 -0.14513722 -0.07447353 -0.15712775 0.44338045 -0.14682361 0.26756656 0.080556616 0.17335247 -0.13421157 -0.013407394 0.19782424 0.12663594 0.07390121 0.029769124 0.26066023 -0.10907342 0.11237034 -0.037873216 -0.15956582 -0.008378024 0.054481063 -0.088799104 0.17900328 0.36350703 -0.14221998 -0.17935535 -0.022857426 0.049471498 0.0906837 -0.21781136 0.15340514 -0.027841462 -0.060934454 -0.22270846 -0.32008827 -0.1605424 0.15830646
'&', 0.13344896 -0.015231512 0.010450642 -0.06484215 -0.10600359 -0.010096713 0.13790798 -0.1627913 0.12113599 -0.12963931 0.04762522 0.08020458 0.031757288 -0.07097066 -0.14584829 -0.0024114212 0.026693063 0.08063919 0.33404404 -0.06184415 -0.038143598 -0.025978068 0.18081672 0.047664985 -0.10909521 0.01007837 0.032629356 -0.024408858 -0.1398858 -0.12935838 -0.08338927 0.0850323 -0.328377 0.06765781 -0.22978652 -0.061996628 -0.20725693 -0.12844203 0.08576283 0.019736601 -0.15551567 -0.08236648 -0.0037489766 0.08959099 -0.036824036 0.08477809 0.078147404 -0.0868966 0.03411524 0.1724989 -0.18649654 -0.14905544 0.18084614 -0.0096394215 -0.047218904 -0.1909194 0.018630465 0.09658271 -0.03385869 -0.1415274 -0.026726801 -0.14282586 0.091470875 -0.05125216 0.075353056 -0.08660346 0.25200328 -0.02566461 0.06775587 -0.07464512 -0.01210308 -0.13817899 0.08490884 0.13839011 0.051244173 0.05103704 0.05764525 0.06987016 -0.04241777 -0.08818896 -0.16198948 -0.08571291 -0.025312308 0.03958799 0.11028551 0.03457813 0.16408396 -0.1680893 -0.2019819 -0.0114963995 0.081651695 -0.066352494 0.00046835747 0.08342171 -0.0042074793 -0.13408342 -0.10779448 -0.04347532 -0.013888298 0.08601924
'char', 0.17188497 -0.03039549 0.000598655 -0.05833499 -0.104036756 0.018959899 0.12671418 -0.16834012 0.12114121 -0.10711405 0.025545113 0.09103484 0.0363144 -0.08061535 -0.14352028 0.010015314 0.01850567 0.08458195 0.32003945 -0.061610755 -0.05441506 -0.03370106 0.18875091 0.0430922 -0.10313387 0.022738121 0.02477648 -0.0423496 -0.14580977 -0.15055561 -0.10476314 0.082761414 -0.30353707 0.08009726 -0.20771131 -0.052885085 -0.18579963 -0.10169121 0.10696232 0.0064744693 -0.1752426 -0.058745142 0.0072722896 0.113325536 -0.018848795 0.09243421 0.07909612 -0.072962634 0.026065832 0.21059327 -0.18711661 -0.14909312 0.1711073 0.006465983 -0.047617666 -0.19217977 0.024766842 0.09599702 -0.028376788 -0.11036606 -0.015882988 -0.1587492 0.097471096 -0.025140375 0.05771329 -0.07382002 0.24203663 -0.02485585 0.03988748 -0.07272889 -0.015393566 -0.1310987 0.055356804 0.13656576 0.029416291 0.046608143 0.040018372 0.049122665 -0.04206299 -0.10995057 -0.16470598 -0.08466872 -0.052174963 0.07251534 0.12382921 0.041786764 0.15073802 -0.16440822 -0.21506386 0.017621059 0.10289098 -0.05507965 0.022082532 0.096088134 0.016375095 -0.14078987 -0.10069285 -0.032037325 0.011272157 0.08991205
'==', 0.1356016 -0.0026802563 -0.002422715 -0.07564502 -0.09706247 0.0009674358 0.13659437 -0.16693497 0.13009812 -0.12335122 0.04191382 0.07937831 0.032876387 -0.07105004 -0.16178812 0.013101268 0.033305306 0.08328716 0.33503553 -0.05461278 -0.049057547 -0.021935754 0.19251305 0.05337696 -0.105203345 0.0036370712 0.039004654 -0.032289654 -0.1301788 -0.1426267 -0.0926904 0.082871914 -0.34057465 0.07115416 -0.24889885 -0.06696034 -0.21496595 -0.11904604 0.087963216 0.030373609 -0.16973823 -0.07542067 -0.00024903845 0.10007845 -0.04425744 0.10423145 0.07484007 -0.09378548 0.028132688 0.18277809 -0.18193647 -0.1573202 0.18753698 -0.005903176 -0.038994644 -0.18864341 0.012134117 0.08313433 -0.03518921 -0.14365502 -0.024758624 -0.13428356 0.0855528 -0.04285444 0.08668693 -0.08764945 0.2630386 -0.019767128 0.07280583 -0.07456028 -0.013287515 -0.13805012 0.07162202 0.14538696 0.04433249 0.046253618 0.056480817 0.06950354 -0.038689636 -0.09524056 -0.18039389 -0.08139558 -0.031126829 0.049399536 0.11958781 0.026761383 0.16588004 -0.16502061 -0.19560288 -0.012063213 0.09715642 -0.07316032 -0.003978218 0.09208714 -0.0071501466 -0.14160666 -0.12119486 -0.042262595 -0.0062364955 0.08211223
'.', 0.16550638 -0.004889419 0.018028878 -0.08549701 -0.09974352 -0.004614443 0.1576496 -0.17172192 0.11623445 -0.12017561 0.031350054 0.08160125 0.034742273 -0.058683377 -0.17327096 0.0076466464 0.04325418 0.08684229 0.34619918 -0.05993106 -0.043461297 -0.025738295 0.18421647 0.06540784 -0.10209489 0.0009083742 0.0350819 -0.048407223 -0.12916517 -0.14138292 -0.076639704 0.087292194 -0.3441327 0.07323336 -0.2453018 -0.06066474 -0.21406747 -0.10339487 0.08756877 0.0059248973 -0.17167053 -0.074131794 0.0027410889 0.09932333 -0.04854201 0.08590538 0.077777795 -0.09265825 0.0130578475 0.17463674 -0.18106203 -0.15345667 0.16636665 -0.015834449 -0.03400815 -0.18941464 0.031732388 0.098352 -0.032655153 -0.14921346 -0.008982411 -0.14572898 0.08290598 -0.04906732 0.064006016 -0.08778329 0.27494845 -0.029074226 0.079627365 -0.07725392 -0.008798669 -0.13629988 0.052428726 0.14634623 0.05084142 0.04210907 0.055262547 0.0684235 -0.03371268 -0.094682746 -0.15910996 -0.08485596 -0.041270524 0.05514089 0.113100566 0.038457938 0.18137069 -0.1687171 -0.20112939 0.004850905 0.091369316 -0.060465153 -0.0143776005 0.10180364 0.002367707 -0.12975019 -0.12607917 -0.05348625 -0.011734052 0.0904572
'int', 0.18134911 -0.028977448 0.011166105 -0.06878957 -0.10683586 0.004272609 0.14237359 -0.17366926 0.11405298 -0.11732527 0.028014025 0.08963115 0.041392576 -0.06949255 -0.1548048 0.0020339557 0.020992743 0.09226634 0.3356909 -0.06829424 -0.055479318 -0.02492019 0.1967112 0.05676151 -0.10889043 0.012118364 0.031180209 -0.048477054 -0.14088579 -0.14567137 -0.09893011 0.0827579 -0.32912186 0.08288266 -0.22200002 -0.049333237 -0.19406511 -0.11185415 0.10451878 0.0034326417 -0.17087619 -0.06568068 0.00059007487 0.112416975 -0.03140588 0.08671396 0.086865045 -0.083228245 0.019228315 0.20482187 -0.1797724 -0.14389807 0.17446391 0.0015763807 -0.046556212 -0.19600536 0.028137937 0.094409406 -0.034594607 -0.12661876 -0.0054236455 -0.16159351 0.09719791 -0.034019656 0.061021134 -0.07831434 0.26365152 -0.0333517 0.05402106 -0.07015832 -0.0073460136 -0.13550147 0.054124426 0.15034021 0.032349423 0.04270007 0.042082287 0.06321944 -0.03598414 -0.09899456 -0.16172491 -0.088017754 -0.051326178 0.07152307 0.12405198 0.038326394 0.17371273 -0.16345842 -0.21242845 0.01843383 0.09777413 -0.058086637 0.009015759 0.095345944 0.012310847 -0.13579819 -0.113553315 -0.041301712 0.008799148 0.099293604
False 0.12352854 -0.0037194989 0.004578064 -0.06818288 -0.09852736 -0.006141243 0.13377605 -0.16649538 0.12733658 -0.10949767 0.045146685 0.0799023 0.03770643 -0.070819505 -0.14767334 0.0021719397 0.027381103 0.081149966 0.32891387 -0.050331548 -0.04115366 -0.023480648 0.1874237 0.051128127 -0.10566955 0.0047062337 0.032908797 -0.027380148 -0.14043228 -0.1298592 -0.08526105 0.08536423 -0.33394995 0.06896982 -0.2345218 -0.053415153 -0.19964099 -0.11939486 0.083695 0.021640277 -0.15322664 -0.07832164 -0.011012955 0.09145413 -0.036497813 0.08672866 0.076801814 -0.08558669 0.030773968 0.17349769 -0.1732254 -0.14825445 0.19037977 -0.006800759 -0.046514295 -0.18807009 0.0019967111 0.097384356 -0.026196616 -0.14247112 -0.01869281 -0.13988279 0.08711022 -0.04177033 0.078203656 -0.08348362 0.25994432 -0.021332905 0.06893467 -0.07758115 -0.011412882 -0.13108605 0.06866849 0.14747135 0.040883064 0.05013156 0.051881533 0.06429073 -0.0377318 -0.08363865 -0.15842327 -0.08390722 -0.02893892 0.036898706 0.11682364 0.031475794 0.16016704 -0.15827893 -0.19088459 -0.018967755 0.0828498 -0.060450625 -0.005372619 0.0744906 -0.0019272704 -0.13171312 -0.097672276 -0.045172006 -0.005892011 0.08393225
False,CWE-476 0.12628841 -0.015113711 0.001909654 -0.07339161 -0.109747425 -0.007083218 0.14218777 -0.15844877 0.12205902 -0.115717135 0.047327604 0.07270535 0.036880553 -0.06117834 -0.15596505 -0.0012214559 0.032951042 0.07969936 0.3322677 -0.047881044 -0.044544883 -0.014004513 0.17689937 0.048288774 -0.09269137 0.015169088 0.03676571 -0.040007904 -0.13014811 -0.135645 -0.075010926 0.07970507 -0.33471474 0.062370107 -0.23944026 -0.05186932 -0.19359411 -0.11233471 0.08701498 0.013257995 -0.15498191 -0.07451915 -0.003462786 0.090880364 -0.044713207 0.08861721 0.06756994 -0.08990759 0.031435132 0.18156189 -0.16966286 -0.15028107 0.18191135 -0.014469689 -0.042673714 -0.18690965 0.007339219 0.10476665 -0.016326258 -0.13905169 -0.014889317 -0.13101707 0.08751778 -0.045522515 0.076484 -0.078782186 0.25363347 -0.019140476 0.07014904 -0.075177036 -0.0068519427 -0.13159841 0.07235727 0.14582665 0.04241901 0.048334207 0.048829462 0.05961004 -0.039417695 -0.08605771 -0.15328223 -0.08534292 -0.021912372 0.044375613 0.11721358 0.038498007 0.15842833 -0.15158755 -0.1904209 -0.015592303 0.08207096 -0.045193136 -0.011718272 0.0722139 -0.009463566 -0.13034032 -0.10514485 -0.047245704 -0.0041263555 0.07746324
'++', 0.23072772 -0.00064417766 0.045943774 -0.15849702 -0.09344326 -0.03977471 0.24705015 -0.190936 0.084382184 -0.16336907 0.0323806 0.09573208 0.004990811 0.013764432 -0.26270276 -0.038299605 0.08120431 0.058136836 0.39662576 -0.09243998 0.011037118 0.014550148 0.15356113 0.117898636 -0.034936532 -0.04837399 0.08904388 -0.10234728 -0.08174896 -0.07713139 -0.037193287 0.08063653 -0.40939668 0.054838087 -0.29617968 -0.012383706 -0.20939073 -0.14011507 0.13395318 -0.021978159 -0.13977383 -0.10517651 0.0011863192 0.051676787 -0.081110835 0.03308513 0.104439005 -0.124625675 -0.023487266 0.11515758 -0.1668938 -0.17183605 0.14748588 -0.04423397 -0.051183622 -0.19657785 0.111579426 0.17547241 -0.005734677 -0.22333816 0.025887102 -0.15048352 0.1127288 -0.094229475 0.0150180105 -0.11975075 0.3503862 -0.07897008 0.15121816 -0.02155408 0.07104309 -0.15192004 0.026845127 0.16819263 0.08381028 0.06191864 0.05186066 0.15509313 -0.062204327 -0.030086758 -0.13513575 -0.12485004 -0.023069048 0.06973206 0.041232716 0.09804092 0.26491794 -0.17654502 -0.21993062 -0.012642442 0.07510532 -0.0013581393 -0.08794083 0.12752572 -0.010502978 -0.12230975 -0.17023976 -0.15485312 -0.058673482 0.12264614
'NULL', 0.119306155 -0.00580128 -0.0064978087 -0.051238094 -0.10478188 0.009467739 0.10714955 -0.17314497 0.13201992 -0.11046709 0.04166811 0.08168457 0.044321418 -0.0861092 -0.13384147 0.01943577 0.019596035 0.09631539 0.32275915 -0.045860585 -0.06158019 -0.030922588 0.19771509 0.03397034 -0.12350096 0.027652465 0.022463875 -0.012724683 -0.14924514 -0.15531038 -0.10669916 0.090182416 -0.32170087 0.07131745 -0.22802252 -0.07354401 -0.2051363 -0.112818144 0.0829999 0.03089644 -0.1658355 -0.07707856 -0.0019186267 0.108899795 -0.037195653 0.11385497 0.060791016 -0.078228846 0.039109785 0.19766979 -0.18679503 -0.1581377 0.18660271 -0.0022989241 -0.044581983 -0.17871895 -0.0012685215 0.07309778 -0.029788189 -0.12225701 -0.033072848 -0.1273052 0.084243014 -0.0415758 0.0885935 -0.076645754 0.22876863 -0.013465852 0.04072389 -0.09757321 -0.034335937 -0.13057087 0.081385456 0.14045449 0.031279642 0.049181096 0.058675993 0.047983047 -0.025215866 -0.097912595 -0.18805328 -0.07024335 -0.034123972 0.049621135 0.13387494 0.021603676 0.14468157 -0.16591252 -0.19584593 -0.012086239 0.09034893 -0.07238012 0.011441654 0.08110717 -0.005587244 -0.15340808 -0.10075753 -0.017666189 0.0046337945 0.06872861
'p', 0.18422 -0.008916266 0.00075298874 -0.10576773 -0.11240523 0.0043245545 0.15978429 -0.18700741 0.118960164 -0.11641267 0.008101263 0.07587381 0.028401563 -0.049445383 -0.1851294 0.030276757 0.050050236 0.08192513 0.3478244 -0.070023425 -0.047599394 -0.0057329726 0.21802545 0.06392477 -0.1052293 -0.0208687 0.036627572 -0.069109015 -0.12122806 -0.13978268 -0.09267968 0.08508686 -0.35920233 0.07363979 -0.2624736 -0.056246974 -0.21575497 -0.10618726 0.1109861 0.0018380889 -0.1857608 -0.06905246 0.011192854 0.08802896 -0.04597318 0.104026064 0.08212011 -0.10424148 -0.00350692 0.18149142 -0.16292349 -0.17410445 0.1501961 -0.0007481583 -0.036212947 -0.17978628 0.043812536 0.1114033 -0.016937925 -0.17545728 -0.008798377 -0.13324049 0.092772685 -0.042133756 0.066399254 -0.092687905 0.26660612 -0.035365563 0.06810664 -0.07315208 0.011581382 -0.1466718 0.036812484 0.14420564 0.06481679 0.043281823 0.050973605 0.08516468 -0.040441077 -0.107745335 -0.18574724 -0.082457535 -0.04217306 0.08523855 0.12612854 0.045688283 0.19974734 -0.17509669 -0.21208495 0.012916279 0.10147604 -0.059512585 -0.017755417 0.1357144 0.019034926 -0.14496723 -0.13151287 -0.057361815 -0.0074541694 0.09934271
'struct', 0.15654668 -0.023073975 0.0044312105 -0.06960186 -0.101291515 0.009929039 0.12768184 -0.16567339 0.11097648 -0.11126979 0.034903288 0.080724336 0.032453373 -0.07604582 -0.15000096 0.009191176 0.016955318 0.081148446 0.313683 -0.06059839 -0.053780124 -0.020997558 0.18373801 0.045383 -0.09714681 0.014298398 0.025409715 -0.047044113 -0.1267444 -0.14164177 -0.089576334 0.07943063 -0.31182888 0.070500016 -0.21360232 -0.048915856 -0.19257256 -0.10799258 0.10198286 0.005224168 -0.16593312 -0.06902391 -0.00023009663 0.09925294 -0.03081062 0.09081857 0.07898958 -0.08450244 0.022976294 0.18214919 -0.17737709 -0.13501951 0.16076006 0.0071516447 -0.038204506 -0.18431292 0.029362455 0.09125515 -0.03413218 -0.12905955 -0.010624764 -0.14393488 0.093672685 -0.03813725 0.06565832 -0.081398934 0.2427428 -0.022889996 0.047059584 -0.072863914 -0.01451776 -0.13190947 0.050861713 0.13652366 0.031602554 0.037351724 0.038497925 0.057592575 -0.037718035 -0.09518667 -0.16126418 -0.0826887 -0.04405155 0.060130917 0.11653198 0.04127553 0.14839123 -0.15957955 -0.19497502 0.0114887 0.09821087 -0.058566723 0.0029897105 0.09064929 0.01085944 -0.13379781 -0.10101958 -0.042147845 0.007736398 0.08914079
'!=', 0.15609786 -0.002249042 -0.0007108133 -0.089049764 -0.11030697 -0.0037331255 0.15038645 -0.18528534 0.123844884 -0.1253282 0.032481 0.08768326 0.03475628 -0.060441136 -0.1632484 0.018686442 0.03378073 0.08860553 0.3572416 -0.057936553 -0.041708305 -0.022248441 0.2029842 0.061660353 -0.11364097 0.0015595406 0.038340922 -0.043403264 -0.13770369 -0.14541236 -0.09859323 0.08674489 -0.35395995 0.06885243 -0.25792596 -0.05846718 -0.21555896 -0.11801993 0.0963151 0.023150288 -0.17658436 -0.08339128 0.0030810032 0.10332187 -0.048463132 0.09571092 0.07737814 -0.09549512 0.019940518 0.18925345 -0.18734927 -0.16698894 0.17996907 -0.012981645 -0.046213422 -0.19066153 0.022555824 0.09985589 -0.03559867 -0.15778826 -0.015997382 -0.13809311 0.09108908 -0.05152206 0.08375375 -0.09032672 0.26744428 -0.0236188 0.07384237 -0.07762383 -0.008519625 -0.14231487 0.066061966 0.15203217 0.05704359 0.039531037 0.04820325 0.06793784 -0.04056678 -0.09345024 -0.18374862 -0.09101878 -0.032371715 0.05323261 0.12762421 0.035703205 0.18112244 -0.18102174 -0.208897 0.00020472746 0.092043385 -0.069225155 -0.006535863 0.095816955 -0.0006205752 -0.14949386 -0.12965979 -0.04847894 -0.01699781 0.08933914
'i', 0.15687707 -0.011211186 0.006451565 -0.078155786 -0.10204274 -0.0056314897 0.1560532 -0.1566256 0.1130298 -0.11515198 0.033625014 0.08327775 0.027845694 -0.06502077 -0.16662873 0.00059281103 0.044657685 0.07677013 0.329383 -0.05075816 -0.036659844 -0.034631085 0.15867116 0.059568692 -0.083234936 0.006178569 0.04443965 -0.053627975 -0.11496347 -0.10738886 -0.07597628 0.080655456 -0.31281495 0.06866937 -0.21818165 -0.06726083 -0.200496 -0.11108005 0.096694596 0.012784304 -0.16160695 -0.0796323 0.0067320704 0.08216056 -0.047419637 0.08210235 0.07039154 -0.08863545 0.016820572 0.17531385 -0.17662343 -0.15777446 0.1701421 -0.012611417 -0.04301812 -0.18762854 0.03447043 0.098748796 -0.015831463 -0.14572217 -0.007947238 -0.14030252 0.0852046 -0.057136483 0.058019795 -0.0871765 0.2504997 -0.03337923 0.087351136 -0.05333077 0.00564938 -0.13228507 0.059157476 0.15428337 0.04767767 0.034029722 0.05483609 0.07751091 -0.05290804 -0.08663356 -0.14461963 -0.08910203 -0.03224311 0.05895073 0.10330371 0.04028141 0.16641128 -0.16498841 -0.18668889 -0.004171738 0.076221526 -0.04427425 -0.012090331 0.0912686 0.002833478 -0.13607499 -0.11852783 -0.05698236 -0.014940338 0.08436117
'}']",0,CWE-120 0.124099 -0.0049703964 0.0037208155 -0.0779945 -0.102952905 -0.01591385 0.14020897 -0.15581867 0.11466616 -0.11408813 0.0484399 0.07190049 0.0314312 -0.056422893 -0.15807068 -0.00090449274 0.032939132 0.08696462 0.32878518 -0.04853463 -0.031558335 -0.0145031 0.18072201 0.045594014 -0.08890093 0.0012367963 0.03826536 -0.038504943 -0.13541856 -0.12572019 -0.07809267 0.07988789 -0.33680567 0.061532572 -0.2428627 -0.050817307 -0.20266734 -0.10843841 0.08710731 0.014912656 -0.15530919 -0.07466624 -0.011042945 0.0888525 -0.05028784 0.07921572 0.0681638 -0.08652134 0.026286235 0.16942783 -0.1760647 -0.14934695 0.18303123 -0.015244236 -0.038530022 -0.18568838 0.0075254412 0.10187251 -0.01969825 -0.1434636 -0.014099596 -0.13101172 0.08952966 -0.040569365 0.06855654 -0.08667301 0.26098254 -0.029390432 0.07207771 -0.07311887 -0.00980966 -0.12368765 0.06757416 0.1535327 0.04979023 0.047996614 0.04378293 0.062080566 -0.036433175 -0.076548114 -0.14807904 -0.0894591 -0.02424595 0.03728854 0.11214841 0.03686316 0.1637055 -0.15120912 -0.19436346 -0.019522417 0.08087002 -0.055706795 -0.01719631 0.07281771 -0.0015505801 -0.1291146 -0.09997476 -0.053370256 -0.0073320395 0.08344184
False,CWE-469 0.120218955 -0.007555886 0.004082436 -0.06179981 -0.10916631 -0.013536753 0.13809834 -0.1523915 0.11370029 -0.11218407 0.04184697 0.075301506 0.033721413 -0.055758014 -0.15088527 -0.0049169185 0.029874345 0.09163024 0.32097346 -0.051535815 -0.033297904 -0.01395981 0.1710946 0.04926132 -0.092650965 0.010723035 0.04211619 -0.028214265 -0.13187113 -0.13241217 -0.070788726 0.085616395 -0.3328005 0.07423902 -0.23437555 -0.052727316 -0.18869454 -0.12140527 0.09030709 0.0135047855 -0.15784699 -0.07118629 -0.004183852 0.09812512 -0.03841405 0.08121837 0.077414006 -0.090473264 0.0260603 0.17213252 -0.164752 -0.140684 0.18218121 -0.006874834 -0.041877717 -0.1885776 0.0058152014 0.100781605 -0.025583705 -0.13591698 -0.012962705 -0.13416518 0.07572406 -0.035992015 0.07743543 -0.074590616 0.2595808 -0.021744248 0.071517736 -0.07678985 -0.005745179 -0.13020137 0.06620851 0.15351164 0.052690223 0.05203814 0.05199969 0.056947395 -0.03676543 -0.08267595 -0.16018847 -0.07671713 -0.019983053 0.035983384 0.117098756 0.036355507 0.15513739 -0.15002425 -0.19123168 -0.019620232 0.08681958 -0.045839943 -0.014135797 0.068354554 -0.012559445 -0.13360606 -0.102751315 -0.03568924 -0.017676337 0.082228124
's', 0.16827685 -0.0062654596 0.017463813 -0.098539606 -0.09551046 -0.02846087 0.17656863 -0.15615425 0.09138948 -0.13962227 0.032611456 0.09342058 0.018806593 -0.032856707 -0.19853891 -0.025127828 0.04113902 0.05969268 0.3404807 -0.07073706 -0.02013155 -0.004371754 0.14123473 0.08116227 -0.070229046 -0.01579497 0.056900978 -0.06934634 -0.09949192 -0.089210525 -0.06360349 0.08689799 -0.3409702 0.05444573 -0.23439227 -0.036519587 -0.1975813 -0.10802101 0.090105236 0.007527004 -0.14175817 -0.08110072 0.005482175 0.06652821 -0.058069594 0.061873514 0.08078199 -0.09269174 -0.0023826014 0.13619956 -0.1623144 -0.15661177 0.15240623 -0.016486876 -0.05112261 -0.18391098 0.056595616 0.12967312 -0.009972428 -0.1564229 -0.007096415 -0.13950907 0.098337874 -0.05609639 0.027998844 -0.09694422 0.2701437 -0.045759447 0.10909389 -0.03618804 0.034637306 -0.13094376 0.04476127 0.15818234 0.05413961 0.042785875 0.05417838 0.099418275 -0.050588887 -0.057925187 -0.14308192 -0.093620084 -0.029008925 0.057992876 0.079919145 0.06217148 0.1949145 -0.15726453 -0.19205417 -0.0093762195 0.07159156 -0.020571006 -0.039422043 0.0985764 -0.0035271132 -0.11728876 -0.12831753 -0.08281174 -0.040106036 0.108007185
'-', 0.1479137 -0.010665421 0.0071243453 -0.08373878 -0.10490899 -0.0028267726 0.15259 -0.1651987 0.11849962 -0.12869872 0.039333653 0.08268302 0.028172782 -0.05965355 -0.17199065 0.004233879 0.039702613 0.074789576 0.34043193 -0.055755958 -0.02812327 -0.01785738 0.17391744 0.058369834 -0.08966596 0.008283656 0.046847317 -0.05002977 -0.117095694 -0.11661108 -0.08766421 0.08842991 -0.33586168 0.07000504 -0.24499458 -0.04996787 -0.2009315 -0.11056673 0.09566761 0.016661398 -0.15933847 -0.0837208 -0.0005281222 0.09263231 -0.050850213 0.08438061 0.0759694 -0.08621984 0.021153597 0.16859923 -0.1798025 -0.15482959 0.1750546 -0.008538816 -0.050107352 -0.19266155 0.027231965 0.103992924 -0.024365883 -0.15190536 -0.015061218 -0.13923551 0.09528921 -0.057301585 0.057652235 -0.09120608 0.26867795 -0.034338348 0.086054586 -0.058970228 0.0032633252 -0.13074036 0.06788955 0.1533795 0.046495773 0.03637611 0.04855603 0.07921989 -0.04330683 -0.082240745 -0.16247317 -0.089647144 -0.03282642 0.04822861 0.09999186 0.0389789 0.17139369 -0.16566351 -0.19527374 -0.0083964495 0.088131264 -0.04859472 -0.016824594 0.093471654 -0.0021460885 -0.13590041 -0.115662135 -0.057384007 -0.022533426 0.09506847
'/', 0.17536084 -0.011944813 0.009313615 -0.09634552 -0.09489962 0.0017784721 0.1533378 -0.17620084 0.12260581 -0.11575436 0.02840248 0.094678134 0.04309401 -0.05902374 -0.18529254 0.016915638 0.036644757 0.08345974 0.36191863 -0.061020803 -0.054570053 -0.025117962 0.20714562 0.07932319 -0.10714593 -2.5027774e-05 0.034736283 -0.05735051 -0.13797435 -0.15472843 -0.080640286 0.076089874 -0.3592363 0.07069023 -0.26360953 -0.0468112 -0.22220913 -0.10478756 0.098393165 -0.0035109967 -0.18193303 -0.08304219 -0.0010361882 0.1033957 -0.054049753 0.099025145 0.08612266 -0.09115061 0.0043043615 0.17245768 -0.19225097 -0.1621053 0.16717434 -0.0052704974 -0.033807028 -0.19067284 0.033565793 0.09401593 -0.039450858 -0.16145165 0.00086314476 -0.15720834 0.084444456 -0.04765518 0.07599096 -0.085636415 0.29443032 -0.037747186 0.07085219 -0.085425384 -0.0090178 -0.1449196 0.050652422 0.13664243 0.039199807 0.03864376 0.043922257 0.07926676 -0.025490131 -0.0997379 -0.16840093 -0.08908499 -0.03851931 0.053686474 0.12447464 0.048273675 0.1942311 -0.16500127 -0.22032283 -0.00088651426 0.10457271 -0.058075298 -0.008534718 0.11088387 0.0051891827 -0.15209582 -0.13101351 -0.069546424 -0.001644876 0.083392344
'name', 0.15203714 -0.011899946 0.0074792854 -0.08219778 -0.10216047 0.003094181 0.1416709 -0.17922619 0.12280364 -0.12003785 0.021678053 0.07803319 0.03248708 -0.06508972 -0.1658895 0.019069785 0.035767492 0.08871398 0.34009233 -0.05910106 -0.052354325 -0.017375307 0.20401233 0.055218596 -0.11298243 0.0055027916 0.03606765 -0.04654923 -0.12962516 -0.14951378 -0.09178499 0.081213094 -0.33484763 0.07574585 -0.23758318 -0.057220265 -0.20691057 -0.1051813 0.10122743 0.009791693 -0.17105678 -0.066397734 0.0057824063 0.099053524 -0.043296836 0.093782164 0.07689188 -0.09167199 0.022060119 0.18811566 -0.17204586 -0.15989722 0.16673267 0.00042226876 -0.03581505 -0.18270703 0.016753865 0.086857684 -0.029973445 -0.15065323 -0.0128639005 -0.1412488 0.087290496 -0.03938685 0.07394006 -0.09032335 0.257512 -0.026520262 0.06705952 -0.079853386 -0.006525891 -0.13436437 0.060031183 0.13953523 0.041735526 0.04549632 0.052465998 0.061837003 -0.030233579 -0.09764925 -0.17795312 -0.08008339 -0.03742925 0.06714141 0.12971076 0.0333943 0.17810252 -0.17221233 -0.20961988 -0.0016144308 0.090904 -0.061951444 -0.0058135213 0.10514146 0.011615182 -0.13501567 -0.12386218 -0.039720982 -0.00627938 0.08441009
'const', 0.16775888 -0.032518692 0.002615877 -0.06340744 -0.108032025 0.020264667 0.12455414 -0.16869399 0.11796716 -0.0905802 0.012549163 0.08054129 0.045378976 -0.078026325 -0.13486584 0.011914042 0.017371882 0.08546445 0.29173705 -0.05143032 -0.05324191 -0.019208232 0.19338124 0.044539683 -0.09631344 0.017096339 0.016602742 -0.04812423 -0.13026842 -0.15097077 -0.093884476 0.063794695 -0.28398824 0.07746611 -0.20411666 -0.04077261 -0.177332 -0.091366164 0.10387628 0.00332607 -0.16566768 -0.052740663 0.00048391987 0.107725315 -0.023462657 0.091870196 0.084129654 -0.07020151 0.015448037 0.19280426 -0.16099212 -0.11975274 0.1461173 0.016575968 -0.034134973 -0.17859788 0.01704543 0.082705274 -0.030955661 -0.110542834 -0.0056300866 -0.14425068 0.09101035 -0.0177896 0.061265953 -0.072531074 0.23087774 -0.020251574 0.027619235 -0.07421268 -0.027736133 -0.11270119 0.03633687 0.12709136 0.020178678 0.04383133 0.035737 0.043286234 -0.024100065 -0.1076758 -0.15996256 -0.07312897 -0.043529794 0.06864248 0.12507193 0.040044725 0.14979114 -0.14764957 -0.20544381 0.022110702 0.09940757 -0.05942627 0.015059403 0.09084462 0.008478533 -0.12802169 -0.10304297 -0.027902894 0.020671919 0.08391957
'n', 0.22658245 -0.014311902 0.030968715 -0.12782207 -0.10525505 -0.035048723 0.23201469 -0.18020625 0.087322965 -0.15118885 0.029430695 0.106670134 0.017861973 -0.016860893 -0.24313058 -0.03259679 0.067979805 0.07064667 0.38461888 -0.0815933 -0.007931508 -0.000285154 0.1521074 0.09978761 -0.055760115 -0.028218875 0.07768469 -0.10333607 -0.09698896 -0.09839295 -0.05639186 0.08675618 -0.3883422 0.06323628 -0.26808438 -0.022222923 -0.21025227 -0.12564264 0.123244494 -0.008762566 -0.14983909 -0.091799505 0.010540518 0.072979234 -0.06621924 0.0514338 0.09660903 -0.111245655 -0.017182639 0.14535731 -0.17868686 -0.16787416 0.15577868 -0.033025857 -0.053458605 -0.20314786 0.09124481 0.16720663 -0.00873277 -0.19155961 0.020938128 -0.16484694 0.1180601 -0.07413844 0.021277292 -0.11847497 0.3256767 -0.06439097 0.12985255 -0.03427614 0.049093023 -0.14601813 0.037845872 0.18207487 0.06824292 0.049813785 0.043339133 0.124494515 -0.06751214 -0.05051288 -0.14284402 -0.12222662 -0.044268284 0.07590348 0.066240065 0.07869233 0.2457691 -0.17737882 -0.22303759 -0.005481995 0.087680064 -0.007916134 -0.06406532 0.12521714 0.005046819 -0.12511252 -0.15024608 -0.13314131 -0.042142607 0.12544362
'<', 0.18567581 -0.008216306 0.019261178 -0.087861404 -0.09592963 -0.020904059 0.18204342 -0.16588463 0.11028412 -0.12821305 0.035125013 0.090161175 0.033063777 -0.04928155 -0.19617768 -0.010005698 0.040238656 0.07650775 0.3536097 -0.0675463 -0.024913447 -0.023262072 0.17240879 0.06873475 -0.07997126 -0.0059010163 0.053760543 -0.063698806 -0.11892182 -0.11871157 -0.07548396 0.08338776 -0.34556803 0.064179316 -0.24549781 -0.05444811 -0.2023393 -0.11697394 0.10588405 0.008771024 -0.15845768 -0.081122026 -0.0012954238 0.083814315 -0.048698932 0.07529934 0.08809668 -0.10075355 0.009785812 0.1710033 -0.17944205 -0.16227467 0.16735634 -0.018168677 -0.053574946 -0.19641957 0.054685697 0.118448004 -0.023108287 -0.1655055 -0.004561723 -0.14831302 0.09501135 -0.06310817 0.052931182 -0.094415925 0.28638396 -0.042460177 0.0887457 -0.05330562 0.018560925 -0.14297447 0.058661148 0.1569571 0.05722018 0.043045837 0.042830147 0.097213894 -0.055164892 -0.06856305 -0.1533065 -0.104459584 -0.03515307 0.06384369 0.089910336 0.054223824 0.20077738 -0.16505705 -0.20183599 0.0006315666 0.08341231 -0.04579604 -0.032042824 0.09588134 0.0027561209 -0.12747025 -0.13182542 -0.08042783 -0.023286028 0.09642826
'break', 0.19995019 -0.0048343497 0.040817946 -0.1444258 -0.09118865 -0.042437866 0.23152228 -0.18379378 0.09211703 -0.16550663 0.041780505 0.09419791 0.007050577 0.011928739 -0.2538189 -0.035838645 0.06553732 0.06554723 0.38548216 -0.08174874 0.01185992 0.025017088 0.14954776 0.10318499 -0.02642016 -0.04364588 0.09480151 -0.08885783 -0.07605715 -0.07933236 -0.038089342 0.092535555 -0.400423 0.046183858 -0.29987207 -0.018290548 -0.21668819 -0.14121273 0.13129833 -0.013428614 -0.13014002 -0.10989924 -0.0110976 0.044786643 -0.08602789 0.040060803 0.09698996 -0.11812437 -0.008396476 0.1046195 -0.1709595 -0.15795931 0.16991994 -0.041617338 -0.05418735 -0.20423259 0.09381083 0.16173607 -0.013294466 -0.22489257 0.00528378 -0.15127261 0.10904504 -0.09419837 0.024842812 -0.12209857 0.35494217 -0.07664248 0.14802638 -0.017123943 0.055739414 -0.14280479 0.03978146 0.17253125 0.07902732 0.05877941 0.053151965 0.14838739 -0.064540096 -0.02038048 -0.12842934 -0.124742046 -0.02010191 0.046748374 0.049915493 0.08644921 0.24391007 -0.1688673 -0.2027552 -0.022354644 0.078432746 -0.019020112 -0.08385406 0.110000126 -0.020705301 -0.12238704 -0.16406395 -0.14891863 -0.06839214 0.116738655
'file', 0.108679205 -0.005577747 -0.013489633 -0.052778233 -0.111500695 0.019081581 0.09229757 -0.18139781 0.1439787 -0.12348523 0.048156768 0.08589708 0.052673165 -0.0950275 -0.11375104 0.03380308 0.006149659 0.10867758 0.33991382 -0.043275643 -0.06419023 -0.04861541 0.21083868 0.0414618 -0.15136753 0.031988043 0.026997194 -0.0009537372 -0.17105198 -0.17377941 -0.12806433 0.08837868 -0.33331677 0.07675533 -0.2350871 -0.06377705 -0.21823503 -0.1303597 0.080277115 0.05117846 -0.17001814 -0.07322232 0.0013610087 0.11149417 -0.031384908 0.11434463 0.06615701 -0.07240605 0.04510183 0.21374063 -0.19498286 -0.15479876 0.19704604 0.010896666 -0.052243564 -0.18299356 -0.026088186 0.061271656 -0.04247517 -0.12129871 -0.041159377 -0.1336444 0.08166234 -0.038987044 0.107394405 -0.06888818 0.2474444 0.003959671 0.0292599 -0.10672731 -0.05571659 -0.13517097 0.10233453 0.13560142 0.03717121 0.043853194 0.052338008 0.030684266 -0.031387985 -0.110786885 -0.20281942 -0.08203572 -0.034734637 0.04378133 0.15374182 0.022955555 0.14043663 -0.1838258 -0.2211294 -0.0040159323 0.09054579 -0.09526704 0.02821982 0.07095857 -0.009672363 -0.15901004 -0.106467366 0.005900679 -0.001909032 0.07106955
'+', 0.19673285 -0.009379592 0.027544646 -0.11617017 -0.10201415 -0.011709669 0.20199099 -0.19235249 0.106989995 -0.14361444 0.02987087 0.09364766 0.029601244 -0.026047537 -0.21141475 -0.00632811 0.058766138 0.08019023 0.37713715 -0.07982877 -0.021256052 -0.0014083907 0.18192212 0.0801865 -0.073979564 -0.02563661 0.06297624 -0.080296636 -0.11971734 -0.12429472 -0.06795633 0.08705139 -0.38043058 0.06948212 -0.27871248 -0.035434134 -0.2201046 -0.118937194 0.12008714 -0.00047928203 -0.16478749 -0.08476973 0.0047680237 0.08421141 -0.061672024 0.06937029 0.09945318 -0.108909555 -0.005356081 0.15911843 -0.17428596 -0.16830756 0.16288665 -0.019284122 -0.044070225 -0.19614756 0.06419021 0.14047283 -0.015411123 -0.17991391 0.0087249 -0.15422226 0.09830504 -0.055400904 0.042995762 -0.109915815 0.31612477 -0.048048243 0.10549244 -0.056451462 0.019181993 -0.14328656 0.042877432 0.15998414 0.069192 0.04809871 0.047324568 0.0968331 -0.046026345 -0.06928842 -0.15811676 -0.1039929 -0.04313187 0.071221106 0.10180581 0.069997996 0.2271129 -0.17241085 -0.22708368 0.006117917 0.0904099 -0.03544919 -0.04398512 0.12232948 -0.0001689971 -0.13223977 -0.1435268 -0.09986358 -0.024696905 0.11597947
'len', 0.1786854 -0.0098248655 0.011472334 -0.08445858 -0.11365195 0.003940299 0.16116242 -0.18394536 0.12513518 -0.12559679 0.031033445 0.090904765 0.042939495 -0.06643456 -0.16985337 0.016133728 0.03504432 0.08967307 0.36564735 -0.06203463 -0.046815403 -0.018792924 0.20770559 0.058193732 -0.115890056 0.003919657 0.033322483 -0.054236718 -0.14340188 -0.14778502 -0.09865255 0.09155745 -0.36367834 0.07950002 -0.25683966 -0.057552665 -0.2237085 -0.1244633 0.10987901 0.0149113 -0.17917025 -0.07350828 0.0052517676 0.10979156 -0.04235918 0.09410851 0.09257394 -0.09915049 0.011513138 0.19888087 -0.1919059 -0.15656288 0.18694487 -0.00019350313 -0.04979617 -0.20195347 0.023275865 0.10089344 -0.02896159 -0.15948339 -0.015385587 -0.15285955 0.09126292 -0.044933002 0.078738965 -0.094942965 0.28839853 -0.03366469 0.06861567 -0.07704933 -0.008383438 -0.14916514 0.058233205 0.15473841 0.050512668 0.050227497 0.050004706 0.07318991 -0.03631539 -0.10320589 -0.18108955 -0.087773524 -0.0466957 0.06792202 0.13298663 0.0425879 0.19069311 -0.17748177 -0.2256928 0.009677279 0.09477257 -0.065309286 -0.0064327405 0.10855964 0.00031495246 -0.14349781 -0.12831357 -0.049899142 -0.00092050654 0.09866167
'vef', 0.15563962 -0.001620437 0.001797056 -0.079665594 -0.10812531 -0.026174735 0.15605299 -0.16166596 0.14448015 -0.14008507 0.030896964 0.08782217 0.05188731 -0.051198557 -0.1591474 0.0151430825 0.026755787 0.08598223 0.35016862 -0.07303014 -0.03721362 -0.011068353 0.18611175 0.06619939 -0.099936366 -0.01123904 0.04070321 -0.048997503 -0.13106984 -0.12050201 -0.07433754 0.07534694 -0.35647264 0.078306705 -0.26269385 -0.062364154 -0.20598379 -0.12592447 0.12128896 0.0209182 -0.16919754 -0.07919326 -0.018253708 0.09865629 -0.03458505 0.11683584 0.09423278 -0.09744796 0.013092038 0.16325365 -0.17024699 -0.13754083 0.1736819 -0.013342868 -0.061509512 -0.19611983 0.011825342 0.08238946 -0.032302953 -0.18180782 -0.02475847 -0.14360155 0.07135157 -0.048998516 0.093163855 -0.098484084 0.27009544 -0.038660664 0.07522052 -0.058851987 -0.010615817 -0.14207736 0.05557426 0.14015302 0.05990047 0.02827167 0.032129034 0.06284399 -0.031073157 -0.09895329 -0.16848537 -0.08995024 -0.040231712 0.051703893 0.11587877 0.04170374 0.18323699 -0.15674363 -0.19026162 -0.016726878 0.10167121 -0.06939433 -0.01194294 0.10492362 -0.015283148 -0.13135259 -0.13651174 -0.03627325 -0.010067074 0.10422769
'&&', 0.17639488 0.0025449693 0.013145577 -0.10165655 -0.09929417 -0.014346159 0.1779007 -0.18291214 0.122965775 -0.1357835 0.027036583 0.08459829 0.027382147 -0.0406738 -0.19933084 0.0058133695 0.05326734 0.074685596 0.3565655 -0.07224307 -0.033614703 -0.007530088 0.1880937 0.07459672 -0.092475034 -0.016729046 0.059158012 -0.06350369 -0.11961323 -0.123473555 -0.08182053 0.0878933 -0.36983934 0.06937904 -0.26739877 -0.05756562 -0.22052842 -0.119075 0.111827195 0.008101706 -0.16828044 -0.07863196 0.002263087 0.079522096 -0.05718443 0.08616954 0.08454418 -0.09700276 0.00074272614 0.16130006 -0.17806274 -0.16225964 0.1759566 -0.016027752 -0.04778485 -0.19625847 0.03869564 0.11420948 -0.020681398 -0.17832135 -0.014074282 -0.1377054 0.08776222 -0.05062578 0.064638734 -0.10548985 0.291955 -0.038248546 0.09890153 -0.055734884 0.008978046 -0.13753104 0.05289537 0.15650803 0.06519467 0.041274473 0.057220653 0.09440157 -0.03975197 -0.07813411 -0.16744977 -0.09755276 -0.02905699 0.05530262 0.10004524 0.04668287 0.2079378 -0.17482986 -0.20712246 -0.007620811 0.09599351 -0.053584076 -0.034007456 0.11511084 0.0012107597 -0.13234936 -0.13776454 -0.07202292 -0.029967764 0.10105139
'for', 0.18584134 -0.0035805067 0.021821044 -0.10173635 -0.09934584 -0.019505445 0.18213129 -0.16737957 0.10237242 -0.13446316 0.026973404 0.093273945 0.017669922 -0.032418016 -0.2068886 -0.009376624 0.05500752 0.065507665 0.35380304 -0.063997455 -0.02106664 -0.012522301 0.16617422 0.080455676 -0.070784084 -0.017352572 0.055703323 -0.07349731 -0.10554181 -0.11008414 -0.07101494 0.08148883 -0.3566328 0.05895892 -0.25603318 -0.04620854 -0.20699012 -0.11659352 0.10390437 0.0044700643 -0.14965159 -0.08895888 8.6434426e-05 0.080607794 -0.060169373 0.073239185 0.083231255 -0.09971621 0.0034744623 0.14997047 -0.17442448 -0.16215578 0.16392133 -0.018479083 -0.041481495 -0.18291746 0.060235888 0.13056995 -0.018264024 -0.17268795 0.0017836506 -0.14240423 0.09422943 -0.055233847 0.043790285 -0.101761974 0.28894204 -0.04622181 0.097355805 -0.045677092 0.024130834 -0.13545187 0.043784797 0.16224575 0.064064436 0.04866784 0.044838388 0.10313095 -0.046655145 -0.062240466 -0.14421564 -0.10113704 -0.03117368 0.059218355 0.08876416 0.05963602 0.20734146 -0.16328475 -0.19971237 -0.0036150466 0.08165167 -0.036194593 -0.04063975 0.10830673 0.003911676 -0.12948085 -0.13288748 -0.08539063 -0.028878305 0.100721814
'err', 0.12393825 -0.024109531 0.0039876434 -0.059878618 -0.099740446 0.0061574844 0.112540275 -0.16513792 0.12558118 -0.11841839 0.04707864 0.08512235 0.03514115 -0.08363483 -0.119341694 0.006738619 0.0138202375 0.09739489 0.3207976 -0.061743718 -0.051329408 -0.039763246 0.19160774 0.034055352 -0.12764548 0.020013219 0.020858062 -0.012527859 -0.1553701 -0.15311682 -0.103127286 0.08620844 -0.31138444 0.06581805 -0.22033155 -0.0609594 -0.20519608 -0.1277169 0.0931191 0.029825432 -0.16263476 -0.07801768 0.0018861126 0.10170454 -0.020498112 0.10002693 0.067424506 -0.08012449 0.037497688 0.18730551 -0.19078913 -0.14404438 0.19178203 0.0065673804 -0.04840598 -0.18260281 0.0050642416 0.07926749 -0.04570831 -0.11639905 -0.033952866 -0.14863746 0.09617725 -0.046116743 0.08286791 -0.07834816 0.24245922 -0.016802508 0.044716008 -0.087767385 -0.03400263 -0.13437016 0.08341446 0.128023 0.038560364 0.05439152 0.046850856 0.0542825 -0.04112824 -0.09446452 -0.1780057 -0.08378358 -0.034157652 0.046681263 0.12288335 0.02067212 0.15034425 -0.16476913 -0.21108562 -0.0008942536 0.090559244 -0.070196666 0.01573236 0.07871163 -0.00095731096 -0.1468201 -0.09922651 -0.020248493 -0.0041425643 0.08213145
'outptr', 0.2030282 -0.011569322 0.03614284 -0.1453289 -0.08334704 -0.053535372 0.2339658 -0.18244329 0.09482318 -0.15506482 0.03905511 0.09364396 0.0052851285 0.009497808 -0.24321501 -0.035127755 0.061447755 0.056106 0.3799314 -0.08953912 0.01612324 0.008304298 0.15509793 0.10730182 -0.044334125 -0.031065352 0.095184825 -0.083473094 -0.08358279 -0.07987667 -0.042243782 0.09280217 -0.4139343 0.04938337 -0.30262375 -0.024883984 -0.21889591 -0.14225402 0.12734121 -0.010253546 -0.13380884 -0.11124094 -0.009657449 0.052696005 -0.07222793 0.032939784 0.104846746 -0.11183041 -0.00028666298 0.116549715 -0.16905965 -0.16437654 0.15964203 -0.045699026 -0.04339375 -0.21176912 0.08130199 0.15519135 -0.012884392 -0.22192325 0.005047164 -0.15683128 0.1218315 -0.097074464 0.03457079 -0.118987925 0.34501383 -0.06985646 0.14975943 -0.016765933 0.058531966 -0.1518042 0.04574511 0.16479307 0.08438334 0.06679808 0.048231978 0.15112954 -0.06723484 -0.021491934 -0.13524766 -0.116656646 -0.014718814 0.04125724 0.043867216 0.091012955 0.24676384 -0.17539532 -0.20481373 -0.020586839 0.070772864 -0.012629586 -0.08562932 0.10085945 -0.018878499 -0.11396287 -0.15756892 -0.13654947 -0.07049316 0.11572962
'a', 0.18097791 -0.001582763 0.019797156 -0.10285819 -0.110127844 -0.006486747 0.17675789 -0.18297906 0.11397172 -0.13120033 0.026594203 0.08493205 0.027377531 -0.045830473 -0.19397174 0.011582721 0.040085267 0.09077895 0.37022305 -0.06951794 -0.042582303 -0.008952827 0.19188157 0.07030767 -0.10148327 -0.0015945538 0.042025864 -0.059151236 -0.12183139 -0.14709304 -0.08257415 0.090985045 -0.3707465 0.08076674 -0.26364887 -0.05936902 -0.21358214 -0.12508172 0.10479833 -0.0033286999 -0.17983167 -0.07574396 -0.005451656 0.09687235 -0.055725303 0.08783981 0.09898528 -0.09844067 0.0014747388 0.17411125 -0.1800954 -0.15204537 0.171658 -0.0102218 -0.038139224 -0.20126964 0.0383796 0.107071795 -0.034774028 -0.1698842 0.00646846 -0.15294491 0.089249365 -0.042215955 0.06664275 -0.096563324 0.29083607 -0.042441122 0.07547496 -0.07778871 0.0022929183 -0.14562967 0.041963503 0.14984421 0.053875454 0.04459865 0.04674534 0.078512624 -0.02853311 -0.09218185 -0.16795911 -0.09543043 -0.04414962 0.056479707 0.12638353 0.04659553 0.19323644 -0.17634116 -0.21944247 0.008285491 0.10666999 -0.058121588 -0.028500644 0.11545988 -0.003680364 -0.13759011 -0.14605258 -0.071151696 -0.010593409 0.103619754
'ret', 0.1433244 -0.014484024 0.011174281 -0.07339346 -0.10103594 -0.0026842947 0.13181484 -0.15334302 0.1120881 -0.11418387 0.03265754 0.079949155 0.025434438 -0.054028943 -0.1537554 -0.0043153684 0.024725534 0.08047643 0.32285836 -0.050584085 -0.03813121 -0.024655845 0.16888946 0.047216967 -0.08874639 0.0058056945 0.033224955 -0.034933615 -0.11582975 -0.1167633 -0.08308666 0.086762786 -0.32412562 0.06983926 -0.22806299 -0.05903962 -0.19313139 -0.11004947 0.08992047 0.020122308 -0.14604117 -0.075429894 -0.0010063408 0.088736005 -0.042150058 0.08453698 0.07921402 -0.085034035 0.026369665 0.17132106 -0.1676448 -0.13511822 0.16596575 -0.009319515 -0.0410039 -0.177585 0.022767711 0.087559864 -0.026778856 -0.14321448 -0.01857613 -0.1291115 0.08976943 -0.041794997 0.07018298 -0.07758249 0.24333763 -0.029455513 0.0670206 -0.066980235 -0.0018971727 -0.12712237 0.067528486 0.14446793 0.047372617 0.04742086 0.047332514 0.064987525 -0.031024443 -0.07881716 -0.14876187 -0.07842992 -0.03467677 0.048354343 0.113205776 0.029348025 0.1537444 -0.16103046 -0.18885355 -0.010211498 0.08417076 -0.05333679 -0.009803952 0.083063096 -0.0074623013 -0.12372871 -0.11203113 -0.04269556 -0.014770846 0.08147284
'data', 0.12299527 -0.015810005 0.0020103843 -0.06266007 -0.10478981 -0.0055444413 0.12235437 -0.16363157 0.116643034 -0.123288736 0.052823212 0.07909835 0.027104704 -0.073462255 -0.13444556 -0.0005060222 0.0135935405 0.088130645 0.31954572 -0.060229953 -0.045815904 -0.039548524 0.17635432 0.040066425 -0.10245686 0.015778828 0.024113564 -0.022511326 -0.13214134 -0.13532583 -0.087726876 0.081197985 -0.31540373 0.069576755 -0.22035573 -0.05790005 -0.19664475 -0.12847811 0.09314253 0.028940963 -0.16075495 -0.07902249 -0.010237098 0.09064604 -0.034252312 0.096121036 0.06028537 -0.08318967 0.04288266 0.16950075 -0.18858054 -0.15246828 0.18177168 -0.008863683 -0.050101977 -0.17807153 0.010415344 0.0819803 -0.03921843 -0.12399278 -0.024426514 -0.13850386 0.08607782 -0.05609833 0.08158958 -0.078557104 0.24211346 -0.019338446 0.050657675 -0.07854542 -0.021214264 -0.13100179 0.07714268 0.13139603 0.0354796 0.048446536 0.052866414 0.06219258 -0.044319835 -0.088310346 -0.17537422 -0.08828431 -0.03522654 0.044166382 0.109232135 0.018082831 0.14366776 -0.1588 -0.19768539 -0.006723479 0.08381222 -0.06834697 0.006386688 0.083595246 -0.0019292923 -0.14682521 -0.10580614 -0.021548713 -0.0077360943 0.076008454
'buf', 0.15104675 -0.018657176 0.002589584 -0.05000938 -0.10917078 0.0042731343 0.12715006 -0.15869802 0.13760786 -0.11970759 0.034907967 0.07998114 0.045032673 -0.09209221 -0.13528077 0.012050936 0.0065608043 0.09086773 0.322793 -0.056984384 -0.06319953 -0.038976286 0.1986337 0.038302038 -0.12708785 0.026303483 0.028840438 -0.0351296 -0.15945517 -0.14859368 -0.09761945 0.09419309 -0.31789124 0.08210737 -0.22548984 -0.07385788 -0.20206916 -0.1160531 0.088059396 0.01813294 -0.1687405 -0.072171226 0.00074500206 0.1121177 -0.030062485 0.1020759 0.08267545 -0.075933196 0.02874265 0.21717112 -0.20054378 -0.15506452 0.19344503 0.012464267 -0.047279444 -0.19058901 0.010349554 0.0866911 -0.027949834 -0.117483854 -0.03516559 -0.14720106 0.091859095 -0.031110527 0.08340841 -0.08463949 0.24426976 -0.015162198 0.04138775 -0.07905726 -0.025482388 -0.14028405 0.08030058 0.1491008 0.031365164 0.04082443 0.04602118 0.05473858 -0.04142966 -0.1107212 -0.17179796 -0.076228976 -0.044124316 0.05713149 0.13529623 0.019550772 0.16192137 -0.16956136 -0.20158005 0.008272183 0.08651992 -0.07478981 0.018215021 0.075601086 0.0049504424 -0.13753992 -0.10417314 -0.02134439 0.016676543 0.088920586
'h', 0.16444215 0.022872731 0.008590389 -0.13327892 -0.07578654 -0.041027665 0.19769582 -0.18297707 0.13851085 -0.17063433 0.05556564 0.09859012 0.038502548 0.0153161865 -0.27227247 -0.014951387 0.05414198 0.086775266 0.3780519 -0.06157515 0.032802094 0.042258672 0.14848271 0.114216626 -0.0139219975 -0.069914065 0.082822576 -0.07120815 -0.048893776 -0.06390764 -0.055663023 0.09596948 -0.42185473 0.03794387 -0.32672244 -0.04613676 -0.22302513 -0.13527812 0.15214029 -0.002672566 -0.15889256 -0.1187958 -0.010026091 0.021371238 -0.104741 0.08259363 0.07281445 -0.099211685 0.022852084 0.10443096 -0.19043407 -0.13890937 0.20896703 -0.025750374 -0.061805725 -0.22204079 0.07349667 0.120011754 -0.03880373 -0.2508913 -0.028265938 -0.17020865 0.08207752 -0.09259716 0.06881497 -0.11976927 0.37834513 -0.072007105 0.15244788 -0.017983416 0.028406188 -0.13249049 0.041257553 0.19810413 0.06646456 0.026710937 0.046863735 0.16022688 -0.07411236 -0.0010087512 -0.11788404 -0.12532848 0.009224512 0.03338203 0.038846675 0.04080246 0.22141965 -0.15283081 -0.17663743 -0.054130085 0.10927656 -0.06168909 -0.09531257 0.11679887 -0.016273595 -0.1295357 -0.1648936 -0.14648665 -0.06670833 0.08722833
'ses', 0.08942967 0.0005689621 -0.035294417 -0.051749676 -0.12579472 -0.0050097145 0.10945566 -0.21857557 0.19067584 -0.12659672 0.07595899 0.109713204 0.056146313 -0.1220723 -0.17384543 0.028253416 0.02602289 0.10271221 0.3731213 -0.02546163 -0.06425525 -0.025863307 0.22521587 0.027262283 -0.12113822 0.045346078 0.025213689 0.012947204 -0.16651398 -0.15138222 -0.12691978 0.1312589 -0.3988181 0.080918655 -0.25911927 -0.08167244 -0.26362225 -0.15901116 0.10390961 0.05502297 -0.21516898 -0.11000816 -0.026274046 0.13056138 -0.04295511 0.159238 0.06860647 -0.095040955 0.07895277 0.24484117 -0.26361006 -0.20419453 0.24887066 -0.007116188 -0.05212866 -0.21514107 -0.0120107215 0.07580493 -0.018782618 -0.16922787 -0.051626157 -0.16562204 0.084907085 -0.0506016 0.1169 -0.09564024 0.24995185 -0.0025945029 0.057008766 -0.11747407 -0.048933085 -0.15877226 0.13964769 0.2006345 0.024098957 0.060252942 0.071828 0.074624725 -0.028839553 -0.09834211 -0.23310746 -0.06984739 -0.039425567 0.039118264 0.13952695 0.024196714 0.14606933 -0.1923292 -0.20494099 -0.051686797 0.12304469 -0.0848601 0.006323039 0.07103241 -0.031104233 -0.19962052 -0.1401673 -0.011276613 -0.0055544046 0.08263729
'c', 0.1622371 -0.0050038453 0.0147662405 -0.10430158 -0.09900703 -0.017415455 0.1731511 -0.17077638 0.13070865 -0.15070911 0.05805327 0.0986782 0.021681337 -0.06957768 -0.20511316 -0.008172831 0.056271244 0.08372593 0.37370124 -0.06634464 -0.026753237 -0.034843214 0.1794429 0.07812148 -0.08835154 0.010597514 0.065576226 -0.0569189 -0.13567619 -0.116266444 -0.08550805 0.09567264 -0.38229877 0.060387105 -0.26896134 -0.06779429 -0.2311074 -0.13839604 0.09821458 0.032709897 -0.16490537 -0.101622686 -0.008459305 0.08808731 -0.05631486 0.08142961 0.07358368 -0.10908534 0.025798753 0.19434582 -0.20388454 -0.18850099 0.20500831 -0.026121855 -0.034019828 -0.21085201 0.039461643 0.12517665 -0.017383324 -0.16998914 -0.022166716 -0.14709966 0.10532825 -0.06205468 0.073027186 -0.10823322 0.31314394 -0.036785215 0.10791469 -0.06272252 0.016424375 -0.15512146 0.088876344 0.17064807 0.06388792 0.0448256 0.061540194 0.09666285 -0.06217205 -0.08284416 -0.17690654 -0.10124469 -0.034679756 0.057332598 0.10163459 0.039122272 0.19542252 -0.18226814 -0.22553302 -0.013409426 0.10782189 -0.03775409 -0.02100733 0.11062384 -0.0034078108 -0.15809035 -0.14537999 -0.07596856 -0.031400762 0.08794617
